
storedBrain ={
    "levels": [
        {
            "inputs": [
                0.406132820608347,
                0.5546162832329031,
                0,
                0,
                0
            ],
            "outputs": [
                1,
                1,
                0,
                1,
                0,
                0
            ],
            "biases": [
                -0.12185554298176353,
                -0.37268756613862436,
                -0.34555094647062734,
                -0.16387696800278267,
                0.15208846446132404,
                0.5434770304054937
            ],
            "weights": [
                [
                    -0.030432798277093318,
                    -0.28215184381698494,
                    -0.7109180478589371,
                    0.011340613618521518,
                    -0.32023797408821447,
                    -0.6292157644051278
                ],
                [
                    -0.16868945966470983,
                    -0.02873842644622692,
                    -0.4518892497394067,
                    0.33519442074223205,
                    0.2638072130991245,
                    0.3448848711292361
                ],
                [
                    -0.24877564589621254,
                    -0.3156631984181728,
                    -0.16397135570352228,
                    -0.11298544879676384,
                    0.07502147986422202,
                    -0.1284654449077353
                ],
                [
                    -0.4426837809689686,
                    -0.19425491173326484,
                    -0.2055462999472416,
                    0.18562841380462086,
                    -0.07384575283458616,
                    0.35235830023300313
                ],
                [
                    -0.08956566127445674,
                    -0.054225311167333784,
                    0.20642455603361023,
                    0.01350372114640704,
                    -0.11378062397426644,
                    -0.10866160263991982
                ]
            ]
        },
        {
            "inputs": [
                1,
                1,
                0,
                1,
                0,
                0
            ],
            "outputs": [
                1,
                0,
                0,
                0
            ],
            "biases": [
                -0.21395783031597818,
                -0.25072356183001576,
                0.1021814423742926,
                -0.16836996791859815
            ],
            "weights": [
                [
                    0.06411204182351532,
                    -0.2380669231978496,
                    -0.5521214048118829,
                    -0.11451613744424427
                ],
                [
                    0.27567474950743637,
                    -0.15003173672837544,
                    -0.11458678414316847,
                    0.01745902620987544
                ],
                [
                    0.29687717138655767,
                    0.3543303033671472,
                    -0.1247994228232891,
                    -0.6581122858713722
                ],
                [
                    0.1451470493890737,
                    -0.2432886450710778,
                    0.26085337820104654,
                    -0.17221228981046513
                ],
                [
                    0.5949286161687642,
                    -0.07085828485776277,
                    0.2362114286990233,
                    -0.30497055328789835
                ],
                [
                    0.1147626696534842,
                    -0.32403559139474075,
                    0.11988577596073448,
                    0.45363910423761633
                ]
            ]
        }
    ]
}
